#pragma once
#include <cstdarg>
namespace Eloquent {
    namespace ML {
        namespace Port {
            class SVM {
                public:
                    /**
                    * Predict class for features vector
                    */
                    int predict(float *x) {
                        float kernels[13] = { 0 };
                        float decisions[1] = { 0 };
                        int votes[2] = { 0 };
                        kernels[0] = compute_kernel(x,   0.357976  , 0.356713  , 0.358772  , 0.358254  , 0.360938  , 0.359131  , 0.35198  , 0.359474  , 0.361441  , 0.355391  , 0.355579  , 0.355766  , 0.362058  , 0.360544  , 0.357855  , 0.362834  , 0.35931  , 0.356892  , 0.354813  , 0.354739  , 0.356497  , 0.359654  , 0.362844  , 0.359596  , 0.363147  , 0.356381  , 0.362283  , 0.358147  , 0.354087  , 0.36091  , 0.359056  , 0.360421  , 0.359666  , 0.363413  , 0.363095  , 0.363898  , 0.362681  , 0.362813  , 0.361399  , 0.362821  , 0.3638  , 0.35974  , 0.377459  , 0.365875  , 0.36491  , 0.363193  , 0.359869  , 0.36421  , 0.361685  , 0.360081  , 0.358436  , 0.359143  , 0.357093  , 0.358168  , 0.360685  , 0.360935  , 0.363245  , 0.362162  , 0.365134  , 0.361285  , 0.359539  , 0.359657  , 0.359021  , 0.357938  , 0.356903  , 0.361579  , 0.357268  , 0.360194  , 0.357335  , 0.355984  , 0.354747  , 0.355158  , 0.356028  , 0.358041  , 0.360864  , 0.353306  , 0.355559  , 0.364459  , 0.354539  , 0.356951  , 0.353844  , 0.356194  , 0.349247  , 0.354184  , 0.351394  , 0.348591  , 0.35052  , 0.348419  , 0.349414  , 0.352047  , 0.357486  , 0.356928  , 0.350943  , 0.359468  , 0.358167  , 0.356859  , 0.35517  , 0.355922  , 0.359164  , 0.355683  , 0.353616  , 0.354156  , 0.348511  , 0.354262  , 0.355354  , 0.358547  , 0.362493  , 0.363524  , 0.357995  , 0.361176  , 0.358559  , 0.357455  , 0.359023  , 0.356604  , 0.351052  , 0.347689  , 0.351326  , 0.350801  , 0.348197  , 0.346707  , 0.346284  , 0.343951  , 0.353046  , 0.353588  , 0.355337  , 0.357168  , 0.354947  , 0.354243  , 0.355791  , 0.354782  , 0.357255  , 0.351173  , 0.353288  , 0.35335  , 0.353112  , 0.361967  , 0.359116  , 0.354367  , 0.357894  , 0.35877  , 0.351008  , 0.355685  , 0.358175  , 0.358178  , 0.359769  , 0.35771  , 0.354647  , 0.352895  , 0.356272  , 0.356675  , 0.357251  , 0.353059  , 0.36048  , 0.356913  , 0.349493  , 0.351867  , 0.347123  , 0.347771  , 0.351684  , 0.357987  , 0.358293  , 0.361245  , 0.351969  , 0.361475  , 0.355331  , 0.359386  , 0.35853  , 0.362731  , 0.363436  , 0.366148  , 0.360041  , 0.359379  , 0.360967  , 0.3592  , 0.357457  , 0.355996  , 0.359038  , 0.362994  , 0.363953  , 0.360028  , 0.360727  , 0.363976  , 0.359337  , 0.362172  , 0.35851  , 0.359563  , 0.358952  , 0.356578  , 0.357598  , 0.359689  , 0.358466  , 0.357099  , 0.355626  , 0.364394  , 0.35928  , 0.361457  , 0.35802  , 0.359026  , 0.357285  , 0.359743  , 0.363774  , 0.357771  , 0.360164  , 0.359494  , 0.355634  , 0.356166  , 0.356402  , 0.353102  , 0.354995  , 0.355798  , 0.358542  , 0.359155  , 0.363492  , 0.353995  , 0.361309  , 0.354061  , 0.360122  , 0.360369  , 0.359481  , 0.353977  , 0.359214  , 0.353153  , 0.357384  , 0.354411  , 0.35498  , 0.355995  , 0.354083  , 0.355935  , 0.354187  , 0.355732  , 0.355896  , 0.35992  , 0.357617  , 0.352975  , 0.351974  , 0.35881  , 0.358291  , 0.353152  , 0.356152  , 0.357869  , 0.356449  , 0.356284  , 0.352807  , 0.355636  , 0.355775  , 0.351864  , 0.352225  , 0.351666  , 0.357542  , 0.3579  , 0.362447  , 0.365923  , 0.35757  , 0.357317  , 0.353414  , 0.35501 );
                        kernels[1] = compute_kernel(x,   0.355551  , 0.359359  , 0.355419  , 0.357871  , 0.353037  , 0.35879  , 0.35851  , 0.358573  , 0.363826  , 0.360616  , 0.358407  , 0.357753  , 0.35566  , 0.35676  , 0.362686  , 0.354952  , 0.359734  , 0.360959  , 0.356006  , 0.356546  , 0.357686  , 0.354141  , 0.355791  , 0.353055  , 0.357565  , 0.353242  , 0.354394  , 0.353874  , 0.351376  , 0.361984  , 0.35471  , 0.357917  , 0.35659  , 0.354657  , 0.349103  , 0.352798  , 0.359439  , 0.348863  , 0.356295  , 0.352131  , 0.355492  , 0.354507  , 0.352774  , 0.351019  , 0.356875  , 0.352302  , 0.361316  , 0.355706  , 0.359082  , 0.353188  , 0.358221  , 0.357832  , 0.358627  , 0.3571  , 0.364338  , 0.358145  , 0.356903  , 0.355946  , 0.350921  , 0.348474  , 0.350108  , 0.349806  , 0.347238  , 0.353153  , 0.349701  , 0.355268  , 0.356361  , 0.35377  , 0.352665  , 0.352042  , 0.359889  , 0.354405  , 0.356257  , 0.356005  , 0.354062  , 0.358216  , 0.351476  , 0.361347  , 0.36032  , 0.36178  , 0.357745  , 0.360504  , 0.359546  , 0.359938  , 0.355519  , 0.358924  , 0.359797  , 0.362339  , 0.361685  , 0.364806  , 0.358279  , 0.363573  , 0.357115  , 0.371439  , 0.36279  , 0.362007  , 0.367339  , 0.362256  , 0.361783  , 0.366362  , 0.366959  , 0.361803  , 0.364864  , 0.371314  , 0.365658  , 0.365924  , 0.366918  , 0.367221  , 0.366021  , 0.363112  , 0.367548  , 0.361927  , 0.359585  , 0.354885  , 0.362791  , 0.363276  , 0.360415  , 0.367888  , 0.365098  , 0.365797  , 0.365579  , 0.365338  , 0.370092  , 0.3694  , 0.371792  , 0.369155  , 0.367701  , 0.366823  , 0.368247  , 0.367305  , 0.370482  , 0.36987  , 0.367114  , 0.37159  , 0.369483  , 0.370627  , 0.379111  , 0.367639  , 0.368169  , 0.367005  , 0.369298  , 0.367592  , 0.371673  , 0.364753  , 0.370029  , 0.36572  , 0.365946  , 0.366049  , 0.366828  , 0.366394  , 0.369415  , 0.362598  , 0.369807  , 0.365474  , 0.36459  , 0.361465  , 0.365834  , 0.372564  , 0.36966  , 0.365804  , 0.362005  , 0.364373  , 0.365838  , 0.363444  , 0.363078  , 0.364469  , 0.361717  , 0.364298  , 0.36471  , 0.36494  , 0.36673  , 0.362607  , 0.367139  , 0.36941  , 0.363071  , 0.367751  , 0.361007  , 0.364332  , 0.368426  , 0.361457  , 0.368246  , 0.364522  , 0.363882  , 0.365606  , 0.365332  , 0.367306  , 0.364481  , 0.366575  , 0.367885  , 0.376368  , 0.370685  , 0.364056  , 0.361898  , 0.364371  , 0.363517  , 0.36528  , 0.364661  , 0.36462  , 0.366657  , 0.362042  , 0.365706  , 0.36376  , 0.369499  , 0.364596  , 0.360662  , 0.35319  , 0.365028  , 0.366026  , 0.36411  , 0.366655  , 0.363966  , 0.36459  , 0.370625  , 0.369584  , 0.371219  , 0.369723  , 0.369818  , 0.370318  , 0.37037  , 0.368758  , 0.369503  , 0.368847  , 0.372363  , 0.374045  , 0.370693  , 0.369849  , 0.368706  , 0.371149  , 0.37109  , 0.368772  , 0.368349  , 0.370835  , 0.363698  , 0.369554  , 0.367236  , 0.367579  , 0.362439  , 0.364639  , 0.373946  , 0.365161  , 0.369796  , 0.366013  , 0.372818  , 0.36846  , 0.369201  , 0.371674  , 0.364472  , 0.361333  , 0.359093  , 0.360237  , 0.364357  , 0.359497  , 0.364155  , 0.367192  , 0.370402  , 0.367074 );
                        kernels[2] = compute_kernel(x,   0.370968  , 0.371301  , 0.372334  , 0.371743  , 0.372583  , 0.374569  , 0.368304  , 0.370826  , 0.373188  , 0.372163  , 0.371999  , 0.372876  , 0.371891  , 0.378016  , 0.374836  , 0.37284  , 0.373929  , 0.372333  , 0.370785  , 0.375222  , 0.378089  , 0.375928  , 0.373804  , 0.375782  , 0.371827  , 0.376802  , 0.375321  , 0.376405  , 0.377391  , 0.375997  , 0.377364  , 0.371303  , 0.372426  , 0.371701  , 0.368154  , 0.374091  , 0.377245  , 0.372842  , 0.370043  , 0.370225  , 0.369984  , 0.373696  , 0.371134  , 0.373307  , 0.377774  , 0.371956  , 0.38026  , 0.374005  , 0.373078  , 0.371269  , 0.36994  , 0.370152  , 0.371916  , 0.37196  , 0.371168  , 0.373462  , 0.372205  , 0.369822  , 0.372744  , 0.374863  , 0.374873  , 0.378288  , 0.372512  , 0.378313  , 0.374764  , 0.375873  , 0.375458  , 0.374302  , 0.372526  , 0.377408  , 0.373795  , 0.374719  , 0.373129  , 0.3731  , 0.374435  , 0.37588  , 0.381668  , 0.378417  , 0.378752  , 0.376288  , 0.366809  , 0.365467  , 0.368519  , 0.370465  , 0.372181  , 0.369807  , 0.373377  , 0.374658  , 0.376303  , 0.376876  , 0.374224  , 0.374229  , 0.373201  , 0.373312  , 0.375643  , 0.374268  , 0.374407  , 0.375438  , 0.373879  , 0.377419  , 0.379831  , 0.377438  , 0.374296  , 0.376525  , 0.371471  , 0.374119  , 0.377417  , 0.376199  , 0.371493  , 0.371927  , 0.36836  , 0.355041  , 0.367257  , 0.360253  , 0.36337  , 0.365148  , 0.364155  , 0.361847  , 0.366295  , 0.362874  , 0.364586  , 0.362702  , 0.371155  , 0.365289  , 0.364435  , 0.362247  , 0.360999  , 0.359919  , 0.365426  , 0.361975  , 0.364251  , 0.360055  , 0.362909  , 0.357563  , 0.366268  , 0.359381  , 0.360501  , 0.358303  , 0.356439  , 0.356462  , 0.356531  , 0.357667  , 0.34967  , 0.356083  , 0.356508  , 0.361598  , 0.35869  , 0.359329  , 0.355709  , 0.35682  , 0.363782  , 0.356892  , 0.358612  , 0.36002  , 0.354664  , 0.362081  , 0.363837  , 0.367663  , 0.363794  , 0.363654  , 0.360795  , 0.358982  , 0.361658  , 0.361071  , 0.363059  , 0.364783  , 0.365307  , 0.367604  , 0.36312  , 0.362746  , 0.36169  , 0.362446  , 0.362856  , 0.361161  , 0.362289  , 0.362746  , 0.359703  , 0.360846  , 0.359292  , 0.360556  , 0.362555  , 0.362883  , 0.363763  , 0.363546  , 0.361146  , 0.366322  , 0.365556  , 0.367268  , 0.363763  , 0.365815  , 0.363574  , 0.363323  , 0.362523  , 0.359766  , 0.360942  , 0.362871  , 0.364624  , 0.363184  , 0.364891  , 0.36225  , 0.363106  , 0.361586  , 0.361882  , 0.361305  , 0.358277  , 0.360485  , 0.3597  , 0.357294  , 0.359805  , 0.358047  , 0.365709  , 0.360885  , 0.364745  , 0.364449  , 0.36291  , 0.362132  , 0.362597  , 0.360418  , 0.360428  , 0.362903  , 0.36757  , 0.37028  , 0.367666  , 0.368421  , 0.367796  , 0.366269  , 0.368475  , 0.365772  , 0.370755  , 0.368091  , 0.366885  , 0.366322  , 0.366231  , 0.363984  , 0.366361  , 0.363865  , 0.360802  , 0.361855  , 0.370767  , 0.365781  , 0.368691  , 0.369414  , 0.366837  , 0.366633  , 0.36366  , 0.366113  , 0.363064  , 0.367012  , 0.367878  , 0.365838  , 0.362901  , 0.36611  , 0.371456  , 0.368707  , 0.371316  , 0.365609 );
                        kernels[3] = compute_kernel(x,   0.36526  , 0.365398  , 0.366248  , 0.366007  , 0.366117  , 0.368138  , 0.368261  , 0.368293  , 0.36842  , 0.374932  , 0.366928  , 0.372968  , 0.36751  , 0.364359  , 0.368541  , 0.365824  , 0.371627  , 0.365221  , 0.368685  , 0.366543  , 0.368947  , 0.369308  , 0.369979  , 0.368645  , 0.368332  , 0.373215  , 0.365656  , 0.371857  , 0.373209  , 0.368939  , 0.366696  , 0.362737  , 0.370432  , 0.369842  , 0.370532  , 0.366638  , 0.368179  , 0.36848  , 0.365876  , 0.365579  , 0.363079  , 0.362115  , 0.361593  , 0.36494  , 0.368259  , 0.369242  , 0.368464  , 0.369557  , 0.37429  , 0.368524  , 0.377335  , 0.365908  , 0.369279  , 0.371019  , 0.370218  , 0.367994  , 0.364371  , 0.370256  , 0.368037  , 0.368411  , 0.368788  , 0.365207  , 0.368715  , 0.367198  , 0.37107  , 0.367964  , 0.366099  , 0.362174  , 0.363315  , 0.364309  , 0.361748  , 0.361331  , 0.364655  , 0.362944  , 0.36989  , 0.367283  , 0.367396  , 0.367099  , 0.368355  , 0.369788  , 0.365172  , 0.368017  , 0.368478  , 0.365801  , 0.362443  , 0.368151  , 0.366148  , 0.36885  , 0.368021  , 0.36595  , 0.365604  , 0.370536  , 0.368835  , 0.364128  , 0.364187  , 0.362373  , 0.364511  , 0.373779  , 0.368158  , 0.367526  , 0.361442  , 0.360207  , 0.36342  , 0.363527  , 0.361983  , 0.361746  , 0.364764  , 0.364529  , 0.365449  , 0.363976  , 0.368219  , 0.364845  , 0.365413  , 0.365087  , 0.365277  , 0.362916  , 0.365132  , 0.36264  , 0.365464  , 0.362927  , 0.373958  , 0.367261  , 0.368294  , 0.365192  , 0.366099  , 0.366332  , 0.362872  , 0.365521  , 0.365854  , 0.36836  , 0.368929  , 0.374123  , 0.368903  , 0.367926  , 0.369797  , 0.366437  , 0.3688  , 0.367366  , 0.368702  , 0.366017  , 0.366548  , 0.363595  , 0.366147  , 0.365212  , 0.368783  , 0.366619  , 0.375615  , 0.368977  , 0.379483  , 0.369755  , 0.373383  , 0.368835  , 0.36835  , 0.376046  , 0.377519  , 0.370462  , 0.370183  , 0.373601  , 0.36884  , 0.370424  , 0.367553  , 0.369832  , 0.371325  , 0.368768  , 0.372874  , 0.371464  , 0.370746  , 0.370438  , 0.367496  , 0.366518  , 0.360286  , 0.365974  , 0.36774  , 0.3693  , 0.371811  , 0.371697  , 0.371756  , 0.371258  , 0.374997  , 0.372477  , 0.366266  , 0.371677  , 0.37314  , 0.370744  , 0.367967  , 0.372195  , 0.368718  , 0.372072  , 0.370702  , 0.372514  , 0.368761  , 0.367352  , 0.365435  , 0.366675  , 0.361526  , 0.370212  , 0.369961  , 0.3717  , 0.37027  , 0.370745  , 0.370936  , 0.374451  , 0.374381  , 0.370192  , 0.374503  , 0.365699  , 0.367562  , 0.370162  , 0.365199  , 0.366698  , 0.366994  , 0.37096  , 0.368775  , 0.369707  , 0.364328  , 0.363928  , 0.36805  , 0.372879  , 0.376741  , 0.364636  , 0.372249  , 0.367166  , 0.373536  , 0.368178  , 0.374011  , 0.368661  , 0.364484  , 0.367142  , 0.370049  , 0.368156  , 0.365699  , 0.362388  , 0.356686  , 0.367848  , 0.376461  , 0.363589  , 0.365224  , 0.363775  , 0.369935  , 0.368131  , 0.366217  , 0.369796  , 0.369425  , 0.364845  , 0.362369  , 0.354932  , 0.371766  , 0.369517  , 0.368603  , 0.369738  , 0.374609  , 0.372222  , 0.373626  , 0.368692  , 0.370464  , 0.36926 );
                        kernels[4] = compute_kernel(x,   0.354455  , 0.356997  , 0.364273  , 0.365738  , 0.361925  , 0.351431  , 0.353563  , 0.355862  , 0.35464  , 0.355535  , 0.354447  , 0.355754  , 0.36078  , 0.360559  , 0.362653  , 0.355085  , 0.360097  , 0.355847  , 0.3616  , 0.365985  , 0.358245  , 0.356049  , 0.349928  , 0.345892  , 0.349185  , 0.354059  , 0.351739  , 0.354439  , 0.356508  , 0.358327  , 0.362349  , 0.356071  , 0.357969  , 0.355834  , 0.355908  , 0.354305  , 0.35703  , 0.356802  , 0.358238  , 0.363763  , 0.357511  , 0.357039  , 0.356169  , 0.356398  , 0.358204  , 0.359714  , 0.361713  , 0.356524  , 0.35907  , 0.359306  , 0.354762  , 0.35471  , 0.359612  , 0.362199  , 0.35815  , 0.354628  , 0.35393  , 0.35172  , 0.355908  , 0.35476  , 0.354984  , 0.359932  , 0.356846  , 0.362555  , 0.353985  , 0.35388  , 0.351734  , 0.349434  , 0.350005  , 0.352703  , 0.346181  , 0.343993  , 0.340876  , 0.339062  , 0.346269  , 0.347193  , 0.346339  , 0.346518  , 0.350062  , 0.349291  , 0.35073  , 0.348269  , 0.348489  , 0.353618  , 0.35451  , 0.353506  , 0.355005  , 0.349895  , 0.350397  , 0.347249  , 0.350496  , 0.348864  , 0.348114  , 0.354884  , 0.351584  , 0.350905  , 0.350489  , 0.352752  , 0.352599  , 0.350509  , 0.356398  , 0.352843  , 0.363973  , 0.352615  , 0.355414  , 0.351745  , 0.353429  , 0.35559  , 0.35414  , 0.353361  , 0.352025  , 0.35437  , 0.35236  , 0.354825  , 0.351743  , 0.35491  , 0.355251  , 0.351425  , 0.361819  , 0.351565  , 0.3537  , 0.348988  , 0.355126  , 0.355227  , 0.355313  , 0.352072  , 0.353567  , 0.352916  , 0.353131  , 0.355626  , 0.354443  , 0.357685  , 0.352021  , 0.359494  , 0.356794  , 0.354383  , 0.356347  , 0.351562  , 0.349772  , 0.354887  , 0.351858  , 0.360127  , 0.350854  , 0.353417  , 0.348615  , 0.349342  , 0.349963  , 0.348332  , 0.351188  , 0.354106  , 0.347532  , 0.352738  , 0.351113  , 0.353884  , 0.352276  , 0.360573  , 0.355409  , 0.356952  , 0.348878  , 0.35057  , 0.346425  , 0.351178  , 0.351707  , 0.352455  , 0.351694  , 0.352796  , 0.356095  , 0.358462  , 0.356242  , 0.358109  , 0.352452  , 0.353534  , 0.356496  , 0.356548  , 0.352438  , 0.343465  , 0.355279  , 0.350564  , 0.349283  , 0.348935  , 0.348573  , 0.346638  , 0.350181  , 0.348142  , 0.352393  , 0.349085  , 0.348962  , 0.352332  , 0.352841  , 0.349865  , 0.360896  , 0.352874  , 0.35462  , 0.350597  , 0.351141  , 0.350641  , 0.352072  , 0.351229  , 0.354099  , 0.354405  , 0.351297  , 0.351508  , 0.35317  , 0.352688  , 0.355857  , 0.355171  , 0.359609  , 0.351927  , 0.354759  , 0.353263  , 0.354728  , 0.359951  , 0.355549  , 0.356671  , 0.352267  , 0.351692  , 0.353577  , 0.352039  , 0.352721  , 0.353841  , 0.358644  , 0.354987  , 0.347766  , 0.349642  , 0.35518  , 0.360257  , 0.353898  , 0.357629  , 0.355324  , 0.354725  , 0.355253  , 0.355043  , 0.353745  , 0.352516  , 0.357543  , 0.355437  , 0.354542  , 0.356989  , 0.354483  , 0.357627  , 0.355913  , 0.35749  , 0.35478  , 0.354451  , 0.354329  , 0.357745  , 0.351401  , 0.357084  , 0.354402  , 0.355224  , 0.354224  , 0.355281  , 0.357061  , 0.358518  , 0.358115  , 0.36119 );
                        kernels[5] = compute_kernel(x,   0.368797  , 0.371494  , 0.368875  , 0.363665  , 0.373624  , 0.37486  , 0.374333  , 0.377997  , 0.376212  , 0.376168  , 0.37466  , 0.376467  , 0.372766  , 0.374032  , 0.374318  , 0.372632  , 0.371831  , 0.369799  , 0.371818  , 0.366746  , 0.369106  , 0.365014  , 0.368146  , 0.365591  , 0.366288  , 0.377246  , 0.374981  , 0.372083  , 0.372793  , 0.374886  , 0.374691  , 0.37226  , 0.369643  , 0.374902  , 0.373127  , 0.379838  , 0.371018  , 0.371671  , 0.373405  , 0.374728  , 0.377732  , 0.3735  , 0.368458  , 0.367702  , 0.366282  , 0.368827  , 0.369381  , 0.366071  , 0.365803  , 0.367669  , 0.368362  , 0.369063  , 0.37119  , 0.369558  , 0.371069  , 0.372583  , 0.375642  , 0.374691  , 0.375478  , 0.369855  , 0.372187  , 0.369516  , 0.375641  , 0.372468  , 0.370356  , 0.369492  , 0.367526  , 0.367834  , 0.367981  , 0.365747  , 0.366813  , 0.367218  , 0.376573  , 0.376306  , 0.377057  , 0.371043  , 0.36756  , 0.367472  , 0.367412  , 0.36938  , 0.37481  , 0.370616  , 0.365165  , 0.369839  , 0.370089  , 0.37075  , 0.369473  , 0.366872  , 0.372967  , 0.37423  , 0.372361  , 0.370134  , 0.370645  , 0.367331  , 0.368577  , 0.374088  , 0.375632  , 0.372827  , 0.372245  , 0.372123  , 0.369824  , 0.373769  , 0.37121  , 0.365528  , 0.375183  , 0.372772  , 0.373667  , 0.371301  , 0.373654  , 0.371322  , 0.375842  , 0.37185  , 0.369563  , 0.374513  , 0.373209  , 0.370456  , 0.374533  , 0.374711  , 0.372673  , 0.370737  , 0.366336  , 0.372208  , 0.376046  , 0.373255  , 0.375346  , 0.37441  , 0.373549  , 0.369032  , 0.373315  , 0.37755  , 0.37  , 0.370586  , 0.369465  , 0.372479  , 0.373254  , 0.372004  , 0.372196  , 0.378362  , 0.370854  , 0.376046  , 0.372227  , 0.373564  , 0.371678  , 0.376086  , 0.371357  , 0.370943  , 0.374881  , 0.371064  , 0.371403  , 0.371183  , 0.367899  , 0.374654  , 0.374173  , 0.374002  , 0.372971  , 0.373726  , 0.375454  , 0.373298  , 0.37353  , 0.372883  , 0.373004  , 0.376391  , 0.372471  , 0.374615  , 0.374609  , 0.372429  , 0.372595  , 0.373056  , 0.370141  , 0.375344  , 0.377157  , 0.375926  , 0.37111  , 0.376719  , 0.37533  , 0.371954  , 0.372045  , 0.376022  , 0.377362  , 0.37006  , 0.371696  , 0.373518  , 0.375215  , 0.373705  , 0.375082  , 0.375981  , 0.370882  , 0.372682  , 0.37094  , 0.37053  , 0.372647  , 0.373787  , 0.379136  , 0.371501  , 0.374415  , 0.371697  , 0.370376  , 0.369344  , 0.372904  , 0.375413  , 0.380423  , 0.374063  , 0.37421  , 0.366881  , 0.374653  , 0.377304  , 0.374511  , 0.377454  , 0.378341  , 0.375596  , 0.370905  , 0.373215  , 0.374368  , 0.373476  , 0.373414  , 0.374988  , 0.37433  , 0.376894  , 0.372376  , 0.375291  , 0.373269  , 0.372209  , 0.371841  , 0.367967  , 0.373178  , 0.371326  , 0.373794  , 0.367206  , 0.368786  , 0.372321  , 0.373682  , 0.377408  , 0.375231  , 0.372188  , 0.374138  , 0.374886  , 0.374604  , 0.373135  , 0.372219  , 0.371352  , 0.371071  , 0.37246  , 0.376293  , 0.378789  , 0.371378  , 0.371192  , 0.370635  , 0.374389  , 0.376113  , 0.373522  , 0.377527  , 0.369508  , 0.372258  , 0.371936  , 0.372092  , 0.373002 );
                        kernels[6] = compute_kernel(x,   0.368766  , 0.36838  , 0.366843  , 0.367322  , 0.368449  , 0.368251  , 0.369017  , 0.359344  , 0.367797  , 0.368535  , 0.366387  , 0.36935  , 0.367304  , 0.367924  , 0.366524  , 0.372557  , 0.363812  , 0.366648  , 0.371656  , 0.370248  , 0.370501  , 0.368592  , 0.366506  , 0.36462  , 0.37011  , 0.368052  , 0.364741  , 0.364385  , 0.364341  , 0.363714  , 0.363156  , 0.367368  , 0.371158  , 0.366458  , 0.364525  , 0.366193  , 0.367994  , 0.366338  , 0.363426  , 0.365687  , 0.366008  , 0.365642  , 0.367363  , 0.368025  , 0.365958  , 0.365291  , 0.365712  , 0.36969  , 0.362392  , 0.365623  , 0.363732  , 0.363121  , 0.363276  , 0.364421  , 0.362194  , 0.359183  , 0.361521  , 0.360561  , 0.364493  , 0.360084  , 0.36589  , 0.363951  , 0.367669  , 0.369011  , 0.369615  , 0.365037  , 0.364678  , 0.363885  , 0.35677  , 0.363584  , 0.360766  , 0.35583  , 0.357769  , 0.365611  , 0.364311  , 0.36604  , 0.362597  , 0.360623  , 0.365182  , 0.361263  , 0.3618  , 0.361549  , 0.356368  , 0.357739  , 0.35938  , 0.361512  , 0.356663  , 0.357676  , 0.357264  , 0.357621  , 0.353508  , 0.356583  , 0.356776  , 0.357196  , 0.356665  , 0.356611  , 0.355849  , 0.357207  , 0.357147  , 0.358371  , 0.354724  , 0.356714  , 0.359618  , 0.362787  , 0.357932  , 0.35814  , 0.362835  , 0.361091  , 0.359777  , 0.360736  , 0.359339  , 0.356677  , 0.358499  , 0.354247  , 0.359832  , 0.359764  , 0.358432  , 0.355025  , 0.35743  , 0.363697  , 0.356648  , 0.356149  , 0.354204  , 0.3567  , 0.361069  , 0.362515  , 0.359923  , 0.356587  , 0.359369  , 0.362802  , 0.359863  , 0.352659  , 0.349936  , 0.355452  , 0.360936  , 0.364106  , 0.364027  , 0.364173  , 0.36158  , 0.361892  , 0.363111  , 0.363845  , 0.358859  , 0.35375  , 0.351597  , 0.350818  , 0.35163  , 0.355912  , 0.361373  , 0.364966  , 0.367168  , 0.366821  , 0.360759  , 0.363232  , 0.357823  , 0.359252  , 0.356406  , 0.35561  , 0.358018  , 0.360347  , 0.363959  , 0.362356  , 0.364423  , 0.36241  , 0.360482  , 0.365096  , 0.366869  , 0.365511  , 0.365754  , 0.36337  , 0.361925  , 0.357727  , 0.361049  , 0.366067  , 0.365871  , 0.368961  , 0.367372  , 0.36557  , 0.367505  , 0.364883  , 0.365517  , 0.363348  , 0.365788  , 0.36709  , 0.368719  , 0.362465  , 0.366646  , 0.365866  , 0.363934  , 0.362845  , 0.36219  , 0.358093  , 0.367143  , 0.366552  , 0.367257  , 0.36399  , 0.362128  , 0.36411  , 0.358032  , 0.358918  , 0.358121  , 0.35945  , 0.358764  , 0.359719  , 0.361561  , 0.363944  , 0.358906  , 0.361236  , 0.360173  , 0.363063  , 0.361807  , 0.361028  , 0.366952  , 0.351596  , 0.363632  , 0.3638  , 0.362752  , 0.362103  , 0.358586  , 0.356869  , 0.357507  , 0.357104  , 0.359566  , 0.360695  , 0.358799  , 0.358388  , 0.359351  , 0.361425  , 0.361905  , 0.35543  , 0.353954  , 0.359858  , 0.360628  , 0.361606  , 0.358666  , 0.356689  , 0.357409  , 0.360851  , 0.356185  , 0.35889  , 0.359849  , 0.357698  , 0.355778  , 0.357344  , 0.358617  , 0.354606  , 0.352083  , 0.355956  , 0.356326  , 0.358271  , 0.359684  , 0.359137  , 0.359968  , 0.361716  , 0.363288  , 0.366845 );
                        kernels[7] = compute_kernel(x,   0.347626  , 0.347142  , 0.372563  , 0.371548  , 0.370432  , 0.369357  , 0.368006  , 0.371061  , 0.369384  , 0.367559  , 0.366635  , 0.368355  , 0.367303  , 0.362649  , 0.36799  , 0.369132  , 0.367672  , 0.368814  , 0.372491  , 0.366716  , 0.364831  , 0.366769  , 0.369738  , 0.366284  , 0.367615  , 0.3702  , 0.366061  , 0.367068  , 0.366944  , 0.365808  , 0.365034  , 0.361529  , 0.363773  , 0.365813  , 0.370724  , 0.368365  , 0.365844  , 0.36447  , 0.368374  , 0.36708  , 0.368394  , 0.364375  , 0.362145  , 0.362318  , 0.361727  , 0.360996  , 0.363944  , 0.363359  , 0.365305  , 0.364604  , 0.365994  , 0.363548  , 0.360942  , 0.359989  , 0.360701  , 0.367411  , 0.364217  , 0.370447  , 0.366164  , 0.367453  , 0.367164  , 0.369598  , 0.366728  , 0.369482  , 0.368247  , 0.370526  , 0.3701  , 0.371503  , 0.367963  , 0.366893  , 0.369131  , 0.366499  , 0.365403  , 0.366359  , 0.367707  , 0.36594  , 0.366798  , 0.366164  , 0.363694  , 0.361423  , 0.362845  , 0.365535  , 0.368111  , 0.366509  , 0.366604  , 0.36574  , 0.366751  , 0.36571  , 0.366692  , 0.372669  , 0.36266  , 0.364141  , 0.364612  , 0.365221  , 0.36336  , 0.364241  , 0.366771  , 0.367302  , 0.367358  , 0.361609  , 0.362736  , 0.365145  , 0.36724  , 0.368353  , 0.365461  , 0.367042  , 0.364902  , 0.366295  , 0.365647  , 0.36601  , 0.366614  , 0.368825  , 0.366247  , 0.366297  , 0.363299  , 0.368031  , 0.367907  , 0.367564  , 0.367502  , 0.367155  , 0.367676  , 0.364277  , 0.364817  , 0.363434  , 0.363619  , 0.364404  , 0.366166  , 0.368308  , 0.367912  , 0.366196  , 0.363603  , 0.36346  , 0.363213  , 0.362471  , 0.363824  , 0.361235  , 0.356018  , 0.355235  , 0.361006  , 0.351986  , 0.361763  , 0.366812  , 0.365532  , 0.363592  , 0.369276  , 0.372106  , 0.368561  , 0.365642  , 0.363964  , 0.365387  , 0.36726  , 0.364744  , 0.363764  , 0.36612  , 0.368382  , 0.364858  , 0.361113  , 0.360898  , 0.361324  , 0.362162  , 0.36402  , 0.363572  , 0.362675  , 0.361486  , 0.364674  , 0.364907  , 0.367482  , 0.36796  , 0.365161  , 0.363973  , 0.365779  , 0.36479  , 0.362801  , 0.36871  , 0.367694  , 0.366189  , 0.367831  , 0.362623  , 0.366471  , 0.361638  , 0.361498  , 0.357403  , 0.362652  , 0.359464  , 0.360252  , 0.361193  , 0.361155  , 0.360922  , 0.364545  , 0.362586  , 0.363739  , 0.364097  , 0.363844  , 0.362468  , 0.367299  , 0.36133  , 0.365989  , 0.366188  , 0.363982  , 0.361942  , 0.359821  , 0.362907  , 0.362939  , 0.36385  , 0.365806  , 0.365371  , 0.363519  , 0.363867  , 0.364155  , 0.366743  , 0.357387  , 0.358425  , 0.358848  , 0.355673  , 0.356886  , 0.359484  , 0.363812  , 0.364807  , 0.360941  , 0.359478  , 0.357815  , 0.357951  , 0.360028  , 0.361055  , 0.36182  , 0.365255  , 0.364964  , 0.3628  , 0.362448  , 0.359608  , 0.363713  , 0.362769  , 0.363435  , 0.365029  , 0.362596  , 0.362596  , 0.364509  , 0.363699  , 0.359654  , 0.362759  , 0.360468  , 0.364227  , 0.365105  , 0.361249  , 0.361908  , 0.360965  , 0.364771  , 0.36622  , 0.362432  , 0.368507  , 0.362536  , 0.359151  , 0.361983  , 0.364023  , 0.362764  , 0.364026 );
                        kernels[8] = compute_kernel(x,   0.357523  , 0.358269  , 0.359865  , 0.365039  , 0.363504  , 0.367285  , 0.360908  , 0.359796  , 0.36313  , 0.3642  , 0.358469  , 0.362535  , 0.359799  , 0.359426  , 0.355773  , 0.353105  , 0.363431  , 0.361906  , 0.363637  , 0.363395  , 0.369973  , 0.364715  , 0.362681  , 0.361236  , 0.359707  , 0.359546  , 0.361131  , 0.360051  , 0.360569  , 0.358924  , 0.355528  , 0.355583  , 0.358529  , 0.355538  , 0.353292  , 0.347903  , 0.359982  , 0.360547  , 0.359388  , 0.360723  , 0.359447  , 0.357486  , 0.357408  , 0.357969  , 0.361381  , 0.355711  , 0.359353  , 0.356572  , 0.357502  , 0.359347  , 0.359149  , 0.361846  , 0.357606  , 0.3632  , 0.361869  , 0.35942  , 0.355771  , 0.359363  , 0.357041  , 0.35517  , 0.36052  , 0.361068  , 0.359374  , 0.361592  , 0.359008  , 0.353938  , 0.354904  , 0.353877  , 0.354978  , 0.356723  , 0.361911  , 0.364249  , 0.356693  , 0.356644  , 0.359776  , 0.356901  , 0.359354  , 0.36065  , 0.362232  , 0.360743  , 0.359804  , 0.359748  , 0.360452  , 0.359852  , 0.359782  , 0.356367  , 0.368318  , 0.363026  , 0.360119  , 0.360897  , 0.359815  , 0.362825  , 0.357149  , 0.362748  , 0.359821  , 0.358542  , 0.359149  , 0.360623  , 0.364175  , 0.360967  , 0.3605  , 0.360339  , 0.362363  , 0.360912  , 0.362041  , 0.355429  , 0.359195  , 0.355049  , 0.350247  , 0.354107  , 0.353674  , 0.360784  , 0.360962  , 0.356973  , 0.357909  , 0.358892  , 0.359811  , 0.359857  , 0.362783  , 0.358421  , 0.360561  , 0.359651  , 0.361197  , 0.358838  , 0.361209  , 0.357422  , 0.356734  , 0.358033  , 0.360839  , 0.358956  , 0.358564  , 0.360726  , 0.356909  , 0.352004  , 0.357969  , 0.36772  , 0.352441  , 0.360819  , 0.361402  , 0.360154  , 0.35912  , 0.360502  , 0.358061  , 0.363523  , 0.358978  , 0.35939  , 0.357013  , 0.359022  , 0.359393  , 0.3609  , 0.359694  , 0.35968  , 0.364501  , 0.361675  , 0.358634  , 0.357342  , 0.35504  , 0.367014  , 0.359473  , 0.363495  , 0.361568  , 0.361701  , 0.362201  , 0.364854  , 0.362295  , 0.363207  , 0.35924  , 0.354422  , 0.360889  , 0.353757  , 0.358005  , 0.357507  , 0.354851  , 0.362784  , 0.3593  , 0.354444  , 0.355348  , 0.352023  , 0.356024  , 0.355966  , 0.354411  , 0.351749  , 0.350839  , 0.354746  , 0.354802  , 0.356134  , 0.356585  , 0.35909  , 0.356878  , 0.357219  , 0.360227  , 0.356981  , 0.353333  , 0.356771  , 0.358643  , 0.359121  , 0.357943  , 0.361396  , 0.358859  , 0.364742  , 0.361696  , 0.366118  , 0.366442  , 0.367924  , 0.366099  , 0.364884  , 0.364311  , 0.363879  , 0.35955  , 0.360835  , 0.361086  , 0.360894  , 0.364677  , 0.368476  , 0.365041  , 0.36777  , 0.367442  , 0.365899  , 0.366791  , 0.366858  , 0.368735  , 0.367018  , 0.369279  , 0.36104  , 0.364886  , 0.362706  , 0.360364  , 0.359652  , 0.362531  , 0.356383  , 0.360712  , 0.36303  , 0.362661  , 0.367061  , 0.359455  , 0.361326  , 0.363752  , 0.36623  , 0.368852  , 0.363981  , 0.371846  , 0.368587  , 0.365709  , 0.364195  , 0.365901  , 0.364748  , 0.368507  , 0.366567  , 0.364581  , 0.363356  , 0.356738  , 0.349552  , 0.353463  , 0.355245  , 0.362057  , 0.360148 );
                        kernels[9] = compute_kernel(x,   0.346778  , 0.343341  , 0.351112  , 0.348651  , 0.351755  , 0.349769  , 0.351073  , 0.350387  , 0.351646  , 0.348038  , 0.347889  , 0.348238  , 0.350264  , 0.350751  , 0.355706  , 0.358333  , 0.358455  , 0.355015  , 0.364021  , 0.365042  , 0.369928  , 0.362754  , 0.35719  , 0.35591  , 0.353009  , 0.346938  , 0.360192  , 0.35322  , 0.346915  , 0.350578  , 0.355705  , 0.361762  , 0.362925  , 0.35643  , 0.348904  , 0.353789  , 0.354012  , 0.358662  , 0.35726  , 0.35197  , 0.356645  , 0.366533  , 0.370229  , 0.36632  , 0.365462  , 0.367514  , 0.367036  , 0.368141  , 0.365336  , 0.364959  , 0.362933  , 0.364991  , 0.366345  , 0.367595  , 0.366043  , 0.370712  , 0.367775  , 0.368539  , 0.371658  , 0.371254  , 0.371811  , 0.363402  , 0.361094  , 0.366499  , 0.367708  , 0.366654  , 0.367657  , 0.368647  , 0.368398  , 0.364175  , 0.367734  , 0.367249  , 0.369322  , 0.368748  , 0.367441  , 0.369093  , 0.368993  , 0.361047  , 0.359298  , 0.365878  , 0.366992  , 0.36534  , 0.366176  , 0.364882  , 0.367409  , 0.366322  , 0.367951  , 0.367483  , 0.365891  , 0.36704  , 0.36726  , 0.368522  , 0.363236  , 0.361133  , 0.367153  , 0.369025  , 0.369863  , 0.36295  , 0.355487  , 0.367504  , 0.364888  , 0.366402  , 0.363073  , 0.366178  , 0.367476  , 0.368115  , 0.369124  , 0.369212  , 0.366396  , 0.363636  , 0.365244  , 0.368961  , 0.366692  , 0.362737  , 0.360341  , 0.364888  , 0.363326  , 0.360111  , 0.35932  , 0.35878  , 0.361178  , 0.360446  , 0.359412  , 0.355737  , 0.361894  , 0.357507  , 0.359019  , 0.359666  , 0.359545  , 0.363904  , 0.359739  , 0.35948  , 0.35707  , 0.356949  , 0.351912  , 0.358952  , 0.360305  , 0.359339  , 0.363862  , 0.363694  , 0.365347  , 0.366532  , 0.366844  , 0.368458  , 0.360291  , 0.368875  , 0.361202  , 0.360952  , 0.360866  , 0.361893  , 0.36348  , 0.362613  , 0.360317  , 0.361732  , 0.360134  , 0.362468  , 0.362713  , 0.365807  , 0.36176  , 0.359246  , 0.364825  , 0.371552  , 0.369624  , 0.370169  , 0.364154  , 0.362802  , 0.363338  , 0.362599  , 0.358759  , 0.366818  , 0.366261  , 0.363704  , 0.362676  , 0.363981  , 0.362314  , 0.362805  , 0.366845  , 0.366522  , 0.365523  , 0.365798  , 0.366724  , 0.365453  , 0.362707  , 0.361592  , 0.367909  , 0.367388  , 0.36224  , 0.360955  , 0.361677  , 0.364909  , 0.358491  , 0.360545  , 0.361248  , 0.360175  , 0.360443  , 0.362997  , 0.362336  , 0.357817  , 0.360547  , 0.359438  , 0.361269  , 0.363308  , 0.360829  , 0.356496  , 0.350787  , 0.35124  , 0.354483  , 0.355047  , 0.356626  , 0.354734  , 0.355079  , 0.36155  , 0.364945  , 0.36149  , 0.358762  , 0.356243  , 0.356808  , 0.36323  , 0.361371  , 0.359509  , 0.360074  , 0.356414  , 0.351683  , 0.349429  , 0.346529  , 0.35164  , 0.356839  , 0.360119  , 0.364891  , 0.36245  , 0.361734  , 0.36118  , 0.357954  , 0.362719  , 0.36504  , 0.363641  , 0.356082  , 0.356175  , 0.357863  , 0.357919  , 0.357761  , 0.358283  , 0.356728  , 0.357243  , 0.361611  , 0.362123  , 0.362357  , 0.35976  , 0.359297  , 0.363266  , 0.358438  , 0.355677  , 0.362784  , 0.352302  , 0.353739  , 0.359284 );
                        kernels[10] = compute_kernel(x,   0.363623  , 0.363353  , 0.362424  , 0.367376  , 0.364549  , 0.367409  , 0.364321  , 0.369446  , 0.36731  , 0.366562  , 0.36791  , 0.369425  , 0.366586  , 0.366825  , 0.366724  , 0.364118  , 0.362498  , 0.360386  , 0.365771  , 0.365191  , 0.367026  , 0.364736  , 0.36506  , 0.368839  , 0.367109  , 0.366946  , 0.371522  , 0.371263  , 0.369077  , 0.367225  , 0.368067  , 0.364805  , 0.36605  , 0.36335  , 0.365347  , 0.363298  , 0.363751  , 0.362402  , 0.360052  , 0.366154  , 0.366439  , 0.367213  , 0.364716  , 0.362892  , 0.368318  , 0.363303  , 0.364072  , 0.364573  , 0.361447  , 0.364875  , 0.3625  , 0.358158  , 0.352767  , 0.356342  , 0.35598  , 0.357186  , 0.358187  , 0.354671  , 0.359886  , 0.359468  , 0.369118  , 0.363598  , 0.363857  , 0.362071  , 0.362601  , 0.363544  , 0.364049  , 0.358736  , 0.365002  , 0.364245  , 0.365498  , 0.366301  , 0.366936  , 0.367282  , 0.365905  , 0.36738  , 0.369267  , 0.366419  , 0.36614  , 0.36839  , 0.365928  , 0.368712  , 0.367982  , 0.370213  , 0.367207  , 0.368693  , 0.36544  , 0.364806  , 0.367267  , 0.36787  , 0.371457  , 0.371254  , 0.371626  , 0.369661  , 0.366331  , 0.36856  , 0.365327  , 0.371276  , 0.365041  , 0.368506  , 0.363583  , 0.367915  , 0.367812  , 0.367729  , 0.368417  , 0.364292  , 0.362924  , 0.365721  , 0.365137  , 0.36951  , 0.362794  , 0.363956  , 0.363506  , 0.364589  , 0.368199  , 0.364246  , 0.363458  , 0.365162  , 0.363655  , 0.362913  , 0.362637  , 0.362287  , 0.363009  , 0.361681  , 0.359328  , 0.357891  , 0.358305  , 0.361093  , 0.364698  , 0.366602  , 0.365347  , 0.367152  , 0.366316  , 0.362002  , 0.363398  , 0.362352  , 0.36598  , 0.365053  , 0.360063  , 0.360988  , 0.36141  , 0.364222  , 0.361697  , 0.362598  , 0.36305  , 0.364824  , 0.358128  , 0.363477  , 0.372074  , 0.361157  , 0.362227  , 0.361437  , 0.366594  , 0.366121  , 0.367574  , 0.363283  , 0.361294  , 0.354843  , 0.35681  , 0.357208  , 0.363143  , 0.364807  , 0.366009  , 0.369374  , 0.368461  , 0.365595  , 0.367229  , 0.365221  , 0.365407  , 0.363881  , 0.36266  , 0.361641  , 0.362114  , 0.361249  , 0.360415  , 0.360541  , 0.359979  , 0.362118  , 0.360269  , 0.354341  , 0.356157  , 0.353975  , 0.356623  , 0.358401  , 0.357523  , 0.364833  , 0.365338  , 0.367206  , 0.364467  , 0.360913  , 0.360513  , 0.354137  , 0.362226  , 0.356982  , 0.361017  , 0.359926  , 0.360034  , 0.360243  , 0.359064  , 0.358514  , 0.36392  , 0.367803  , 0.36784  , 0.361376  , 0.36231  , 0.366373  , 0.365211  , 0.367858  , 0.369183  , 0.367045  , 0.368295  , 0.370498  , 0.364811  , 0.366276  , 0.365756  , 0.361951  , 0.364232  , 0.361372  , 0.363758  , 0.369985  , 0.366767  , 0.368549  , 0.368486  , 0.364736  , 0.370255  , 0.368807  , 0.368495  , 0.369159  , 0.369423  , 0.359874  , 0.359205  , 0.360595  , 0.368577  , 0.370736  , 0.370076  , 0.365729  , 0.369366  , 0.365691  , 0.362531  , 0.357814  , 0.359285  , 0.370164  , 0.372503  , 0.365882  , 0.365319  , 0.365102  , 0.36381  , 0.362982  , 0.362132  , 0.358275  , 0.36299  , 0.360975  , 0.357965  , 0.357145  , 0.354455  , 0.36123 );
                        kernels[11] = compute_kernel(x,   0.353368  , 0.355457  , 0.355252  , 0.360758  , 0.358058  , 0.359598  , 0.353452  , 0.356454  , 0.366308  , 0.360026  , 0.360607  , 0.355376  , 0.354528  , 0.355606  , 0.359042  , 0.357581  , 0.35866  , 0.367018  , 0.366974  , 0.36554  , 0.356706  , 0.351808  , 0.351739  , 0.365364  , 0.364798  , 0.360542  , 0.366929  , 0.363426  , 0.359294  , 0.359797  , 0.361421  , 0.363104  , 0.365876  , 0.36315  , 0.365064  , 0.371642  , 0.365199  , 0.363899  , 0.368011  , 0.368144  , 0.364775  , 0.362345  , 0.363804  , 0.364417  , 0.363568  , 0.362215  , 0.362277  , 0.362687  , 0.365536  , 0.365433  , 0.368138  , 0.371593  , 0.365088  , 0.36661  , 0.364195  , 0.364203  , 0.36389  , 0.367547  , 0.364918  , 0.366712  , 0.362172  , 0.359955  , 0.364862  , 0.359197  , 0.36257  , 0.360073  , 0.364628  , 0.367602  , 0.367983  , 0.362598  , 0.359346  , 0.36202  , 0.364768  , 0.364756  , 0.36881  , 0.363507  , 0.360584  , 0.364293  , 0.365126  , 0.365251  , 0.364524  , 0.364434  , 0.363409  , 0.36438  , 0.356526  , 0.35905  , 0.364271  , 0.364428  , 0.361069  , 0.359682  , 0.362154  , 0.362253  , 0.365336  , 0.366158  , 0.364691  , 0.363636  , 0.368289  , 0.367839  , 0.362953  , 0.36424  , 0.364661  , 0.363691  , 0.367504  , 0.3671  , 0.36281  , 0.363274  , 0.368621  , 0.36529  , 0.366569  , 0.365652  , 0.364769  , 0.362655  , 0.360991  , 0.362647  , 0.363149  , 0.357918  , 0.355635  , 0.354191  , 0.360093  , 0.363452  , 0.36221  , 0.366541  , 0.363513  , 0.366557  , 0.369989  , 0.365921  , 0.369717  , 0.364732  , 0.364175  , 0.364735  , 0.366515  , 0.360931  , 0.368346  , 0.365932  , 0.366377  , 0.367521  , 0.36401  , 0.361475  , 0.366928  , 0.364292  , 0.368799  , 0.364475  , 0.362371  , 0.363302  , 0.359868  , 0.358176  , 0.357198  , 0.356588  , 0.356111  , 0.353669  , 0.356751  , 0.352735  , 0.35794  , 0.355293  , 0.359808  , 0.35686  , 0.359366  , 0.351464  , 0.352788  , 0.354225  , 0.356261  , 0.358821  , 0.358753  , 0.357165  , 0.354154  , 0.354183  , 0.357102  , 0.353005  , 0.35148  , 0.358343  , 0.353519  , 0.368953  , 0.371171  , 0.363351  , 0.366991  , 0.364788  , 0.364387  , 0.367911  , 0.367698  , 0.368027  , 0.364158  , 0.366227  , 0.365158  , 0.365544  , 0.366785  , 0.365568  , 0.36635  , 0.364773  , 0.365357  , 0.364485  , 0.36471  , 0.365011  , 0.367139  , 0.364295  , 0.36498  , 0.368757  , 0.362319  , 0.356822  , 0.359495  , 0.356444  , 0.363636  , 0.36259  , 0.36059  , 0.355081  , 0.358816  , 0.360665  , 0.365358  , 0.363315  , 0.364814  , 0.363095  , 0.364795  , 0.364664  , 0.365779  , 0.365244  , 0.366587  , 0.358374  , 0.361566  , 0.364415  , 0.364899  , 0.360268  , 0.358096  , 0.3565  , 0.357464  , 0.355505  , 0.358773  , 0.358716  , 0.36338  , 0.364173  , 0.362517  , 0.357766  , 0.357721  , 0.360913  , 0.358731  , 0.357008  , 0.355555  , 0.357327  , 0.363028  , 0.363267  , 0.359602  , 0.359156  , 0.356781  , 0.356926  , 0.362896  , 0.361407  , 0.357773  , 0.34832  , 0.347623  , 0.347414  , 0.354158  , 0.349331  , 0.3583  , 0.358966  , 0.353653  , 0.365406  , 0.36491  , 0.36497 );
                        kernels[12] = compute_kernel(x,   0.360415  , 0.355253  , 0.357837  , 0.359168  , 0.358123  , 0.352286  , 0.358552  , 0.36305  , 0.357475  , 0.361726  , 0.36687  , 0.359363  , 0.358621  , 0.363344  , 0.365474  , 0.359048  , 0.363037  , 0.362814  , 0.360708  , 0.366294  , 0.36887  , 0.366114  , 0.367351  , 0.367466  , 0.367047  , 0.363872  , 0.363926  , 0.367493  , 0.361783  , 0.364429  , 0.364408  , 0.368952  , 0.366266  , 0.369201  , 0.370202  , 0.373975  , 0.369176  , 0.367444  , 0.368217  , 0.362268  , 0.366159  , 0.368531  , 0.363215  , 0.366022  , 0.362876  , 0.353635  , 0.362632  , 0.353853  , 0.353383  , 0.350984  , 0.358079  , 0.363865  , 0.364051  , 0.361296  , 0.357942  , 0.356264  , 0.35957  , 0.362665  , 0.35631  , 0.365454  , 0.352484  , 0.348523  , 0.357576  , 0.352638  , 0.355029  , 0.361134  , 0.36483  , 0.357832  , 0.359511  , 0.358883  , 0.359761  , 0.359414  , 0.358923  , 0.359505  , 0.359802  , 0.365887  , 0.366679  , 0.362901  , 0.363547  , 0.360104  , 0.357947  , 0.361954  , 0.361608  , 0.361282  , 0.362602  , 0.356864  , 0.357722  , 0.358036  , 0.359918  , 0.358806  , 0.359552  , 0.35948  , 0.364744  , 0.343593  , 0.348542  , 0.36254  , 0.36231  , 0.355466  , 0.36096  , 0.353774  , 0.357943  , 0.358965  , 0.355981  , 0.354822  , 0.351197  , 0.350754  , 0.353031  , 0.351904  , 0.353656  , 0.348866  , 0.351224  , 0.359317  , 0.361278  , 0.358367  , 0.357095  , 0.354761  , 0.349619  , 0.355006  , 0.353382  , 0.35601  , 0.36038  , 0.35556  , 0.360569  , 0.357108  , 0.360944  , 0.358402  , 0.355439  , 0.357848  , 0.358604  , 0.358161  , 0.355067  , 0.35266  , 0.351529  , 0.354877  , 0.357357  , 0.358127  , 0.362593  , 0.356105  , 0.35289  , 0.357042  , 0.361206  , 0.362032  , 0.36039  , 0.36234  , 0.361457  , 0.361543  , 0.359887  , 0.3552  , 0.356513  , 0.35673  , 0.355932  , 0.352624  , 0.35317  , 0.355575  , 0.356157  , 0.357658  , 0.356378  , 0.358208  , 0.352674  , 0.357691  , 0.359139  , 0.359594  , 0.362623  , 0.362891  , 0.36287  , 0.363939  , 0.364415  , 0.362652  , 0.368403  , 0.366665  , 0.364663  , 0.362115  , 0.362856  , 0.364679  , 0.36388  , 0.365404  , 0.344778  , 0.337084  , 0.354061  , 0.363979  , 0.36422  , 0.359945  , 0.365467  , 0.364288  , 0.365511  , 0.366463  , 0.364504  , 0.355973  , 0.359462  , 0.361389  , 0.361426  , 0.363966  , 0.364839  , 0.356182  , 0.365977  , 0.368985  , 0.363593  , 0.363734  , 0.367377  , 0.361034  , 0.365989  , 0.363683  , 0.363875  , 0.364947  , 0.366459  , 0.365869  , 0.361341  , 0.364295  , 0.36487  , 0.364017  , 0.367504  , 0.364083  , 0.364202  , 0.366601  , 0.367749  , 0.368114  , 0.371754  , 0.370577  , 0.36953  , 0.368858  , 0.364609  , 0.364157  , 0.367686  , 0.369325  , 0.366546  , 0.367185  , 0.36799  , 0.369161  , 0.37459  , 0.367824  , 0.365505  , 0.361859  , 0.365623  , 0.370694  , 0.366803  , 0.365042  , 0.363707  , 0.363089  , 0.367414  , 0.365906  , 0.369022  , 0.368277  , 0.371113  , 0.367192  , 0.369988  , 0.365019  , 0.364713  , 0.36806  , 0.365768  , 0.362232  , 0.366311  , 0.365734  , 0.364997  , 0.36565  , 0.367793  , 0.369243 );
                        float decision = 27.765446830975;
                        decision = decision - ( + kernels[0] * -100.0  + kernels[1] * -100.0  + kernels[2] * -100.0  + kernels[3] * -100.0  + kernels[4] * -100.0  + kernels[5] * -65.832681067518 );
                        decision = decision - ( + kernels[6] * 100.0  + kernels[7] * 100.0  + kernels[8] * 60.7606156775  + kernels[9] * 33.952097245996  + kernels[10] * 100.0  + kernels[11] * 100.0  + kernels[12] * 71.119968144022 );

                        return decision > 0 ? 0 : 1;
                    }

                    /**
                    * Predict readable class name
                    */
                    const char* predictLabel(float *x) {
                        return idxToLabel(predict(x));
                    }

                    /**
                    * Convert class idx to readable name
                    */
                    const char* idxToLabel(uint8_t classIdx) {
                        switch (classIdx) {
                            case 0:
                            return "klepus";
                            case 1:
                            return "klusums";
                            default:
                            return "Houston we have a problem";
                        }
                    }

                protected:
                    /**
                    * Compute kernel between feature vector and support vector.
                    * Kernel type: poly
                    */
                    float compute_kernel(float *x, ...) {
                        va_list w;
                        va_start(w, 256);
                        float kernel = 0.0;

                        for (uint16_t i = 0; i < 256; i++) {
                            kernel += x[i] * va_arg(w, double);
                        }

                        return pow((0.1 * kernel) + 0.0, 2);
                    }
                };
            }
        }
    }